digraph Tree {
node [shape=box] ;
0 [label="X[14] <= 10.5\nmse = 20.48\nsamples = 276\nvalue = 10.457"] ;
1 [label="X[14] <= 5.5\nmse = 15.529\nsamples = 130\nvalue = 7.038"] ;
0 -> 1 [labeldistance=2.5, labelangle=45, headlabel="True"] ;
2 [label="X[8] <= 2.0\nmse = 1.889\nsamples = 18\nvalue = 0.333"] ;
1 -> 2 ;
3 [label="mse = 0.0\nsamples = 17\nvalue = 0.0"] ;
2 -> 3 ;
4 [label="mse = 0.0\nsamples = 1\nvalue = 6.0"] ;
2 -> 4 ;
5 [label="X[8] <= 1.0\nmse = 9.335\nsamples = 112\nvalue = 8.116"] ;
1 -> 5 ;
6 [label="X[2] <= 16.5\nmse = 21.805\nsamples = 27\nvalue = 5.481"] ;
5 -> 6 ;
7 [label="X[14] <= 7.5\nmse = 13.822\nsamples = 13\nvalue = 8.154"] ;
6 -> 7 ;
8 [label="mse = 8.0\nsamples = 3\nvalue = 2.0"] ;
7 -> 8 ;
9 [label="mse = 0.8\nsamples = 10\nvalue = 10.0"] ;
7 -> 9 ;
10 [label="X[0] <= 0.5\nmse = 16.429\nsamples = 14\nvalue = 3.0"] ;
6 -> 10 ;
11 [label="mse = 13.243\nsamples = 12\nvalue = 2.083"] ;
10 -> 11 ;
12 [label="mse = 0.25\nsamples = 2\nvalue = 8.5"] ;
10 -> 12 ;
13 [label="X[14] <= 7.5\nmse = 2.468\nsamples = 85\nvalue = 8.953"] ;
5 -> 13 ;
14 [label="X[2] <= 17.5\nmse = 1.573\nsamples = 15\nvalue = 6.6"] ;
13 -> 14 ;
15 [label="mse = 1.354\nsamples = 12\nvalue = 6.25"] ;
14 -> 15 ;
16 [label="mse = 0.0\nsamples = 3\nvalue = 8.0"] ;
14 -> 16 ;
17 [label="X[14] <= 9.5\nmse = 1.22\nsamples = 70\nvalue = 9.457"] ;
13 -> 17 ;
18 [label="mse = 1.015\nsamples = 41\nvalue = 8.902"] ;
17 -> 18 ;
19 [label="mse = 0.459\nsamples = 29\nvalue = 10.241"] ;
17 -> 19 ;
20 [label="X[14] <= 13.5\nmse = 5.223\nsamples = 146\nvalue = 13.5"] ;
0 -> 20 [labeldistance=2.5, labelangle=-45, headlabel="False"] ;
21 [label="X[14] <= 12.5\nmse = 1.356\nsamples = 87\nvalue = 11.977"] ;
20 -> 21 ;
22 [label="X[14] <= 11.5\nmse = 0.906\nsamples = 61\nvalue = 11.492"] ;
21 -> 22 ;
23 [label="X[13] <= 13.5\nmse = 0.666\nsamples = 25\nvalue = 10.88"] ;
22 -> 23 ;
24 [label="mse = 0.498\nsamples = 24\nvalue = 10.792"] ;
23 -> 24 ;
25 [label="mse = 0.0\nsamples = 1\nvalue = 13.0"] ;
23 -> 25 ;
26 [label="X[11] <= 2.5\nmse = 0.632\nsamples = 36\nvalue = 11.917"] ;
22 -> 26 ;
27 [label="mse = 0.0\nsamples = 4\nvalue = 13.0"] ;
26 -> 27 ;
28 [label="mse = 0.546\nsamples = 32\nvalue = 11.781"] ;
26 -> 28 ;
29 [label="X[5] <= 2.5\nmse = 0.564\nsamples = 26\nvalue = 13.115"] ;
21 -> 29 ;
30 [label="X[4] <= 1.5\nmse = 0.576\nsamples = 19\nvalue = 12.947"] ;
29 -> 30 ;
31 [label="mse = 0.472\nsamples = 12\nvalue = 13.167"] ;
30 -> 31 ;
32 [label="mse = 0.531\nsamples = 7\nvalue = 12.571"] ;
30 -> 32 ;
33 [label="X[7] <= 0.5\nmse = 0.245\nsamples = 7\nvalue = 13.571"] ;
29 -> 33 ;
34 [label="mse = 0.16\nsamples = 5\nvalue = 13.8"] ;
33 -> 34 ;
35 [label="mse = 0.0\nsamples = 2\nvalue = 13.0"] ;
33 -> 35 ;
36 [label="X[14] <= 16.5\nmse = 2.461\nsamples = 59\nvalue = 15.746"] ;
20 -> 36 ;
37 [label="X[14] <= 14.5\nmse = 0.946\nsamples = 47\nvalue = 15.106"] ;
36 -> 37 ;
38 [label="X[10] <= 0.5\nmse = 0.408\nsamples = 14\nvalue = 14.143"] ;
37 -> 38 ;
39 [label="mse = 0.56\nsamples = 5\nvalue = 13.8"] ;
38 -> 39 ;
40 [label="mse = 0.222\nsamples = 9\nvalue = 14.333"] ;
38 -> 40 ;
41 [label="X[10] <= 0.5\nmse = 0.613\nsamples = 33\nvalue = 15.515"] ;
37 -> 41 ;
42 [label="mse = 0.66\nsamples = 20\nvalue = 15.8"] ;
41 -> 42 ;
43 [label="mse = 0.225\nsamples = 13\nvalue = 15.077"] ;
41 -> 43 ;
44 [label="X[13] <= 18.5\nmse = 0.521\nsamples = 12\nvalue = 18.25"] ;
36 -> 44 ;
45 [label="X[8] <= 5.5\nmse = 0.264\nsamples = 11\nvalue = 18.091"] ;
44 -> 45 ;
46 [label="mse = 0.222\nsamples = 6\nvalue = 18.333"] ;
45 -> 46 ;
47 [label="mse = 0.16\nsamples = 5\nvalue = 17.8"] ;
45 -> 47 ;
48 [label="mse = 0.0\nsamples = 1\nvalue = 20.0"] ;
44 -> 48 ;
}